{"learner":{"attributes":{"scikit_learn":"{\"_estimator_type\": \"classifier\"}"},"feature_names":[],"feature_types":[],"gradient_booster":{"model":{"cats":{"enc":[],"feature_segments":[],"sorted_idx":[]},"gbtree_model_param":{"num_parallel_tree":"1","num_trees":"100"},"iteration_indptr":[0,1,2,3,4,5,6,7,8,9,10,11,12,13,14,15,16,17,18,19,20,21,22,23,24,25,26,27,28,29,30,31,32,33,34,35,36,37,38,39,40,41,42,43,44,45,46,47,48,49,50,51,52,53,54,55,56,57,58,59,60,61,62,63,64,65,66,67,68,69,70,71,72,73,74,75,76,77,78,79,80,81,82,83,84,85,86,87,88,89,90,91,92,93,94,95,96,97,98,99,100],"tree_info":[0,0,0,0,0,0,0,0,0,0,0,0,0,0,0,0,0,0,0,0,0,0,0,0,0,0,0,0,0,0,0,0,0,0,0,0,0,0,0,0,0,0,0,0,0,0,0,0,0,0,0,0,0,0,0,0,0,0,0,0,0,0,0,0,0,0,0,0,0,0,0,0,0,0,0,0,0,0,0,0,0,0,0,0,0,0,0,0,0,0,0,0,0,0,0,0,0,0,0,0],"trees":[{"base_weights":[-0E0,1.1111112E0,-1.9354838E-1,1.4461539E0,-1.68E-1,2.3312883E-2,1.721959E-1],"categories":[],"categories_nodes":[],"categories_segments":[],"categories_sizes":[],"default_left":[0,0,0,0,0,0,0],"id":0,"left_children":[1,3,-1,5,-1,-1,-1],"loss_changes":[1.8279568E2,5.2927185E1,0E0,1.5908287E1,0E0,0E0,0E0],"parents":[2147483647,0,0,1,1,3,3],"right_children":[2,4,-1,6,-1,-1,-1],"split_conditions":[5.5E1,1E0,-1.9354838E-1,1E0,-1.68E-1,2.3312883E-2,1.721959E-1],"split_indices":[5,6,0,0,0,0,0],"split_type":[0,0,0,0,0,0,0],"sum_hessian":[8.3E1,5.3E1,3E1,4.775E1,5.25E0,9.1875E0,3.85625E1],"tree_param":{"num_deleted":"0","num_feature":"10","num_nodes":"7","size_leaf_vector":"1"}},{"base_weights":[-2.0358763E-3,1.0067884E0,-1.7646556E-1,1.313583E0,-1.5483451E-1,2.121312E-2,1.565787E-1],"categories":[],"categories_nodes":[],"categories_segments":[],"categories_sizes":[],"default_left":[0,0,0,0,0,0,0],"id":1,"left_children":[1,3,-1,5,-1,-1,-1],"loss_changes":[1.5007312E2,4.4111683E1,0E0,1.3130775E1,0E0,0E0,0E0],"parents":[2147483647,0,0,1,1,3,3],"right_children":[2,4,-1,6,-1,-1,-1],"split_conditions":[5.5E1,1E0,-1.7646556E-1,1E0,-1.5483451E-1,2.121312E-2,1.565787E-1],"split_indices":[5,6,0,0,0,0,0],"split_type":[0,0,0,0,0,0,0],"sum_hessian":[8.239822E1,5.2677433E1,2.9720785E1,4.7464302E1,5.2131295E0,9.186252E0,3.827805E1],"tree_param":{"num_deleted":"0","num_feature":"10","num_nodes":"7","size_leaf_vector":"1"}},{"base_weights":[-3.8934224E-3,9.218073E-1,-1.63436E-1,1.2054349E0,-1.4421742E-1,1.9306634E-2,1.4416498E-1],"categories":[],"categories_nodes":[],"categories_segments":[],"categories_sizes":[],"default_left":[0,0,0,0,0,0,0],"id":2,"left_children":[1,3,-1,5,-1,-1,-1],"loss_changes":[1.2501992E2,3.7165424E1,0E0,1.11336975E1,0E0,0E0,0E0],"parents":[2147483647,0,0,1,1,3,3],"right_children":[2,4,-1,6,-1,-1,-1],"split_conditions":[5.5E1,1E0,-1.63436E-1,1E0,-1.4421742E-1,1.9306634E-2,1.4416498E-1],"split_indices":[5,6,0,0,0,0,0],"split_type":[0,0,0,0,0,0,0],"sum_hessian":[8.0833565E1,5.1837406E1,2.8996159E1,4.672186E1,5.11555E0,9.182948E0,3.753891E1],"tree_param":{"num_deleted":"0","num_feature":"10","num_nodes":"7","size_leaf_vector":"1"}},{"base_weights":[-5.635805E-3,8.505093E-1,-1.5317984E-1,-3.7690037E-1,1.302741E-1,-1.6402881E-1,1.6246562E-1],"categories":[],"categories_nodes":[],"categories_segments":[],"categories_sizes":[],"default_left":[0,0,0,0,0,0,0],"id":3,"left_children":[1,3,-1,5,-1,-1,-1],"loss_changes":[1.05308235E2,2.9152794E1,0E0,3.978239E1,0E0,0E0,0E0],"parents":[2147483647,0,0,1,1,3,3],"right_children":[2,4,-1,6,-1,-1,-1],"split_conditions":[5.5E1,1E0,-1.5317984E-1,3E0,1.302741E-1,-1.6402881E-1,1.6246562E-1],"split_indices":[5,0,0,3,0,0,0],"split_type":[0,0,0,0,0,0,0],"sum_hessian":[7.859904E1,5.0636013E1,2.7963024E1,1.3678244E1,3.695777E1,8.496025E0,5.182219E0],"tree_param":{"num_deleted":"0","num_feature":"10","num_nodes":"7","size_leaf_vector":"1"}},{"base_weights":[-5.9119756E-3,7.918336E-1,-1.4490475E-1,-3.4619197E-1,1.21685855E-1,-1.527157E-1,1.5038532E-1],"categories":[],"categories_nodes":[],"categories_segments":[],"categories_sizes":[],"default_left":[0,0,0,0,0,0,0],"id":4,"left_children":[1,3,-1,5,-1,-1,-1],"loss_changes":[8.9662506E1,2.4683773E1,0E0,3.3798492E1,0E0,0E0,0E0],"parents":[2147483647,0,0,1,1,3,3],"right_children":[2,4,-1,6,-1,-1,-1],"split_conditions":[5.5E1,1E0,-1.4490475E-1,3E0,1.21685855E-1,-1.527157E-1,1.5038532E-1],"split_indices":[5,0,0,3,0,0,0],"split_type":[0,0,0,0,0,0,0],"sum_hessian":[7.588576E1,4.9161346E1,2.672441E1,1.3418398E1,3.5742947E1,8.296749E0,5.121649E0],"tree_param":{"num_deleted":"0","num_feature":"10","num_nodes":"7","size_leaf_vector":"1"}},{"base_weights":[-6.284695E-3,7.418824E-1,-1.3809238E-1,-3.2112303E-1,1.1422918E-1,-1.4347938E-1,1.4054736E-1],"categories":[],"categories_nodes":[],"categories_segments":[],"categories_sizes":[],"default_left":[0,0,0,0,0,0,0],"id":5,"left_children":[1,3,-1,5,-1,-1,-1],"loss_changes":[7.6919945E1,2.0983501E1,0E0,2.9001244E1,0E0,0E0,0E0],"parents":[2147483647,0,0,1,1,3,3],"right_children":[2,4,-1,6,-1,-1,-1],"split_conditions":[5.5E1,1E0,-1.3809238E-1,3E0,1.1422918E-1,-1.4347938E-1,1.4054736E-1],"split_indices":[5,0,0,3,0,0,0],"split_type":[0,0,0,0,0,0,0],"sum_hessian":[7.2795265E1,4.7437195E1,2.535807E1,1.3033616E1,3.440358E1,8.025865E0,5.0077515E0],"tree_param":{"num_deleted":"0","num_feature":"10","num_nodes":"7","size_leaf_vector":"1"}},{"base_weights":[-6.739082E-3,6.9846934E-1,-1.3238841E-1,-3.0017328E-1,1.0762908E-1,1.0961834E-1,-1.3393578E-1],"categories":[],"categories_nodes":[],"categories_segments":[],"categories_sizes":[],"default_left":[0,0,0,0,0,0,0],"id":6,"left_children":[1,3,-1,5,-1,-1,-1],"loss_changes":[6.639174E1,1.7889954E1,0E0,2.1147036E1,0E0,0E0,0E0],"parents":[2147483647,0,0,1,1,3,3],"right_children":[2,4,-1,6,-1,-1,-1],"split_conditions":[5.5E1,1E0,-1.3238841E-1,1.2E1,1.0762908E-1,1.0961834E-1,-1.3393578E-1],"split_indices":[5,0,0,5,0,0,0],"split_type":[0,0,0,0,0,0,0],"sum_hessian":[6.948095E1,4.5558388E1,2.3922562E1,1.2561596E1,3.299679E1,5.336315E0,7.225281E0],"tree_param":{"num_deleted":"0","num_feature":"10","num_nodes":"7","size_leaf_vector":"1"}},{"base_weights":[-7.610426E-3,6.58613E-1,-1.275419E-1,-2.8278604E-1,1.01688564E-1,1.0272149E-1,-1.2757687E-1],"categories":[],"categories_nodes":[],"categories_segments":[],"categories_sizes":[],"default_left":[0,0,0,0,0,0,0],"id":7,"left_children":[1,3,-1,5,-1,-1,-1],"loss_changes":[5.753269E1,1.5349873E1,0E0,1.834218E1,0E0,0E0,0E0],"parents":[2147483647,0,0,1,1,3,3],"right_children":[2,4,-1,6,-1,-1,-1],"split_conditions":[5.5E1,1E0,-1.275419E-1,1.2E1,1.01688564E-1,1.0272149E-1,-1.2757687E-1],"split_indices":[5,0,0,5,0,0,0],"split_type":[0,0,0,0,0,0,0],"sum_hessian":[6.6120224E1,4.365852E1,2.24617E1,1.2093162E1,3.156536E1,5.199372E0,6.8937902E0],"tree_param":{"num_deleted":"0","num_feature":"10","num_nodes":"7","size_leaf_vector":"1"}},{"base_weights":[-8.552852E-3,6.2253153E-1,-1.2336967E-1,-2.6763582E-1,9.626349E-2,9.6555226E-2,-1.2206942E-1],"categories":[],"categories_nodes":[],"categories_segments":[],"categories_sizes":[],"default_left":[0,0,0,0,0,0,0],"id":8,"left_children":[1,3,-1,5,-1,-1,-1],"loss_changes":[5.0054512E1,1.3196571E1,0E0,1.5984197E1,0E0,0E0,0E0],"parents":[2147483647,0,0,1,1,3,3],"right_children":[2,4,-1,6,-1,-1,-1],"split_conditions":[5.5E1,1E0,-1.2336967E-1,1.2E1,9.626349E-2,9.6555226E-2,-1.2206942E-1],"split_indices":[5,0,0,5,0,0,0],"split_type":[0,0,0,0,0,0,0],"sum_hessian":[6.2746075E1,4.1738174E1,2.10079E1,1.1597252E1,3.0140923E1,5.049917E0,6.5473347E0],"tree_param":{"num_deleted":"0","num_feature":"10","num_nodes":"7","size_leaf_vector":"1"}},{"base_weights":[-9.5682675E-3,5.8942187E-1,-1.197346E-1,-2.5427086E-2,9.124662E-2],"categories":[],"categories_nodes":[],"categories_segments":[],"categories_sizes":[],"default_left":[0,0,0,0,0],"id":9,"left_children":[1,3,-1,-1,-1],"loss_changes":[4.3692318E1,1.136156E1,0E0,0E0,0E0],"parents":[2147483647,0,0,1,1],"right_children":[2,4,-1,-1,-1],"split_conditions":[5.5E1,1E0,-1.197346E-1,-2.5427086E-2,9.124662E-2],"split_indices":[5,0,0,0,0],"split_type":[0,0,0,0,0],"sum_hessian":[5.941962E1,3.9834866E1,1.9584755E1,1.1088358E1,2.8746506E1],"tree_param":{"num_deleted":"0","num_feature":"10","num_nodes":"5","size_leaf_vector":"1"}},{"base_weights":[-1.0331886E-2,5.522559E-1,-1.1653177E-1,-2.3160562E-2,8.655755E-2],"categories":[],"categories_nodes":[],"categories_segments":[],"categories_sizes":[],"default_left":[0,0,0,0,0],"id":10,"left_children":[1,3,-1,-1,-1],"loss_changes":[3.8112038E1,9.890401E0,0E0,0E0,0E0],"parents":[2147483647,0,0,1,1],"right_children":[2,4,-1,-1,-1],"split_conditions":[5.5E1,1E0,-1.1653177E-1,-2.3160562E-2,8.655755E-2],"split_indices":[5,0,0,0,0],"split_type":[0,0,0,0,0],"sum_hessian":[5.666326E1,3.8454243E1,1.820902E1,1.1055769E1,2.7398474E1],"tree_param":{"num_deleted":"0","num_feature":"10","num_nodes":"5","size_leaf_vector":"1"}},{"base_weights":[-1.1101942E-2,5.173711E-1,-1.1367931E-1,-2.1093782E-2,8.2135457E-1,6.5395206E-2,9.8665744E-2],"categories":[],"categories_nodes":[],"categories_segments":[],"categories_sizes":[],"default_left":[0,0,0,0,0,0,0],"id":11,"left_children":[1,3,-1,-1,5,-1,-1],"loss_changes":[3.3322357E1,8.615622E0,0E0,0E0,1.049099E-1,0E0,0E0],"parents":[2147483647,0,0,1,1,4,4],"right_children":[2,4,-1,-1,6,-1,-1],"split_conditions":[5.5E1,1E0,-1.1367931E-1,-2.1093782E-2,2E0,6.5395206E-2,9.8665744E-2],"split_indices":[5,0,0,0,0,0,0],"split_type":[0,0,0,0,0,0,0],"sum_hessian":[5.4024963E1,3.7132797E1,1.6892166E1,1.1024786E1,2.6108013E1,1.543403E1,1.0673983E1],"tree_param":{"num_deleted":"0","num_feature":"10","num_nodes":"7","size_leaf_vector":"1"}},{"base_weights":[-1.03396755E-2,4.8608327E-1,-1.1111231E-1,-1.9209164E-1,7.811037E-1,9.4983004E-2,-1.14638165E-1,6.1509278E-2,9.484878E-2],"categories":[],"categories_nodes":[],"categories_segments":[],"categories_sizes":[],"default_left":[0,0,0,0,0,0,0,0,0],"id":12,"left_children":[1,3,-1,5,7,-1,-1,-1,-1],"loss_changes":[2.9263906E1,7.5373087E0,0E0,1.4160657E1,1.3703918E-1,0E0,0E0,0E0,0E0],"parents":[2147483647,0,0,1,1,3,3,4,4],"right_children":[2,4,-1,6,8,-1,-1,-1,-1],"split_conditions":[5.5E1,1E0,-1.1111231E-1,1.2E1,2E0,9.4983004E-2,-1.14638165E-1,6.1509278E-2,9.484878E-2],"split_indices":[5,0,0,5,0,0,0,0,0],"split_type":[0,0,0,0,0,0,0,0,0],"sum_hessian":[5.156399E1,3.59224E1,1.5641592E1,1.0995501E1,2.49269E1,5.007775E0,5.9877257E0,1.4861783E1,1.0065117E1],"tree_param":{"num_deleted":"0","num_feature":"10","num_nodes":"9","size_leaf_vector":"1"}},{"base_weights":[-1.0006185E-2,7.366751E-1,-7.03853E-1,7.5596794E-3,9.978845E-2,-1.2219721E-1,1.4718698E-2],"categories":[],"categories_nodes":[],"categories_segments":[],"categories_sizes":[],"default_left":[0,0,0,0,0,0,0],"id":13,"left_children":[1,3,5,-1,-1,-1,-1],"loss_changes":[2.6299196E1,4.1477804E0,1.1778708E1,0E0,0E0,0E0,0E0],"parents":[2147483647,0,0,1,1,2,2],"right_children":[2,4,6,-1,-1,-1,-1],"split_conditions":[2.8E1,2.4E1,1E0,7.5596794E-3,9.978845E-2,-1.2219721E-1,1.4718698E-2],"split_indices":[5,5,2,0,0,0,0],"split_type":[0,0,0,0,0,0,0],"sum_hessian":[4.8761745E1,2.345692E1,2.5304825E1,7.0086303E0,1.644829E1,1.5458017E1,9.8468075E0],"tree_param":{"num_deleted":"0","num_feature":"10","num_nodes":"7","size_leaf_vector":"1"}},{"base_weights":[-9.920211E-3,4.4257504E-1,-1.07008E-1,1.9688419E-1,1.1768408E-1,-1.14637926E-1,6.350497E-1,2.8940259E-2,9.835592E-2],"categories":[],"categories_nodes":[],"categories_segments":[],"categories_sizes":[],"default_left":[0,0,0,0,0,0,0,0,0],"id":14,"left_children":[1,3,-1,5,-1,-1,7,-1,-1],"loss_changes":[2.3294382E1,5.910687E0,0E0,1.6450369E1,0E0,0E0,2.2192535E0,0E0,0E0],"parents":[2147483647,0,0,1,1,3,3,6,6],"right_children":[2,4,-1,6,-1,-1,8,-1,-1],"split_conditions":[5.5E1,3E0,-1.07008E-1,1E0,1.1768408E-1,-1.14637926E-1,2E0,2.8940259E-2,9.835592E-2],"split_indices":[5,3,0,0,0,0,1,0,0],"split_type":[0,0,0,0,0,0,0,0,0],"sum_hessian":[4.657133E1,3.3048275E1,1.3523057E1,2.5712736E1,7.3355384E0,5.926827E0,1.978591E1,1.0852723E1,8.933187E0],"tree_param":{"num_deleted":"0","num_feature":"10","num_nodes":"9","size_leaf_vector":"1"}},{"base_weights":[-9.366586E-3,4.2257923E-1,-1.0499314E-1,1.8586807E-1,1.1363075E-1,-1.1077167E-1,6.013437E-1,2.6753912E-2,9.528031E-2],"categories":[],"categories_nodes":[],"categories_segments":[],"categories_sizes":[],"default_left":[0,0,0,0,0,0,0,0,0],"id":15,"left_children":[1,3,-1,5,-1,-1,7,-1,-1],"loss_changes":[2.0654362E1,5.27766E0,0E0,1.44210005E1,0E0,0E0,2.093719E0,0E0,0E0],"parents":[2147483647,0,0,1,1,3,3,6,6],"right_children":[2,4,-1,6,-1,-1,8,-1,-1],"split_conditions":[5.5E1,3E0,-1.0499314E-1,1E0,1.1363075E-1,-1.1077167E-1,2E0,2.6753912E-2,9.528031E-2],"split_indices":[5,3,0,0,0,0,1,0,0],"split_type":[0,0,0,0,0,0,0,0,0],"sum_hessian":[4.3965824E1,3.1488585E1,1.2477239E1,2.4592718E1,6.8958664E0,5.5734916E0,1.9019226E1,1.0657915E1,8.361312E0],"tree_param":{"num_deleted":"0","num_feature":"10","num_nodes":"9","size_leaf_vector":"1"}},{"base_weights":[-8.87437E-3,4.0366894E-1,-1.03108875E-1,1.7533632E-1,1.09973505E-1,-1.0723509E-1,5.691079E-1,2.4708515E-2,9.2354916E-2],"categories":[],"categories_nodes":[],"categories_segments":[],"categories_sizes":[],"default_left":[0,0,0,0,0,0,0,0,0],"id":16,"left_children":[1,3,-1,5,-1,-1,7,-1,-1],"loss_changes":[1.8340933E1,4.734468E0,0E0,1.2663923E1,0E0,0E0,1.9748755E0,0E0,0E0],"parents":[2147483647,0,0,1,1,3,3,6,6],"right_children":[2,4,-1,6,-1,-1,8,-1,-1],"split_conditions":[5.5E1,3E0,-1.03108875E-1,1E0,1.09973505E-1,-1.0723509E-1,2E0,2.4708515E-2,9.2354916E-2],"split_indices":[5,3,0,0,0,0,1,0,0],"split_type":[0,0,0,0,0,0,0,0,0],"sum_hessian":[4.1505066E1,3.0002014E1,1.1503053E1,2.3533987E1,6.468027E0,5.2321973E0,1.830179E1,1.047866E1,7.8231306E0],"tree_param":{"num_deleted":"0","num_feature":"10","num_nodes":"9","size_leaf_vector":"1"}},{"base_weights":[-8.441527E-3,6.2961996E-1,-6.3494134E-1,-2.5141095E-3,9.043209E-2,-1.1712282E-1,1.3451926E-2],"categories":[],"categories_nodes":[],"categories_segments":[],"categories_sizes":[],"default_left":[0,0,0,0,0,0,0],"id":17,"left_children":[1,3,5,-1,-1,-1,-1],"loss_changes":[1.646644E1,3.6945581E0,8.731527E0,0E0,0E0,0E0,0E0],"parents":[2147483647,0,0,1,1,2,2],"right_children":[2,4,6,-1,-1,-1,-1],"split_conditions":[2.8E1,2.4E1,1E0,-2.5141095E-3,9.043209E-2,-1.1712282E-1,1.3451926E-2],"split_indices":[5,5,2,0,0,0,0],"split_type":[0,0,0,0,0,0,0],"sum_hessian":[3.9192257E1,1.9414497E1,1.977776E1,6.0064216E0,1.3408075E1,1.1347095E1,8.430666E0],"tree_param":{"num_deleted":"0","num_feature":"10","num_nodes":"7","size_leaf_vector":"1"}},{"base_weights":[-8.824874E-3,3.6918312E-1,-9.998097E-2,1.4197974E-1,1.0608933E-1,-2.431668E-1,8.779944E-2,-6.931272E-2,3.5646655E-2],"categories":[],"categories_nodes":[],"categories_segments":[],"categories_sizes":[],"default_left":[0,0,0,0,0,0,0,0,0],"id":18,"left_children":[1,3,-1,5,-1,7,-1,-1,-1],"loss_changes":[1.4768899E1,4.337285E0,0E0,6.6342773E0,0E0,4.470303E0,0E0,0E0,0E0],"parents":[2147483647,0,0,1,1,3,3,5,5],"right_children":[2,4,-1,6,-1,8,-1,-1,-1],"split_conditions":[5.5E1,3E0,-9.998097E-2,2E0,1.0608933E-1,1E0,8.779944E-2,-6.931272E-2,3.5646655E-2],"split_indices":[5,3,0,1,0,2,0,0,0],"split_type":[0,0,0,0,0,0,0,0,0],"sum_hessian":[3.744041E1,2.755652E1,9.883888E0,2.1650366E1,5.9061546E0,1.4652518E1,6.9978485E0,8.281913E0,6.3706055E0],"tree_param":{"num_deleted":"0","num_feature":"10","num_nodes":"9","size_leaf_vector":"1"}},{"base_weights":[-6.6399756E-3,3.520197E-1,-9.8333895E-2,1.3494141E-1,1.0304719E-1,-2.2374658E-1,8.513986E-2,-6.345593E-2,3.3286925E-2],"categories":[],"categories_nodes":[],"categories_segments":[],"categories_sizes":[],"default_left":[0,0,0,0,0,0,0,0,0],"id":19,"left_children":[1,3,-1,5,-1,7,-1,-1,-1],"loss_changes":[1.3177079E1,3.9149995E0,0E0,5.8454027E0,0E0,3.7453587E0,0E0,0E0,0E0],"parents":[2147483647,0,0,1,1,3,3,5,5],"right_children":[2,4,-1,6,-1,8,-1,-1,-1],"split_conditions":[5.5E1,3E0,-9.8333895E-2,2E0,1.0304719E-1,1E0,8.513986E-2,-6.345593E-2,3.3286925E-2],"split_indices":[5,3,0,1,0,2,0,0,0],"split_type":[0,0,0,0,0,0,0,0,0],"sum_hessian":[3.562812E1,2.6526676E1,9.101443E0,2.100484E1,5.5218353E0,1.4455518E1,6.549324E0,8.236502E0,6.219016E0],"tree_param":{"num_deleted":"0","num_feature":"10","num_nodes":"9","size_leaf_vector":"1"}},{"base_weights":[-4.4976342E-3,5.652599E-1,-5.9542936E-1,-1.0053932E-2,8.561143E-2,-1.1424028E-1,1.1510531E-2],"categories":[],"categories_nodes":[],"categories_segments":[],"categories_sizes":[],"default_left":[0,0,0,0,0,0,0],"id":20,"left_children":[1,3,5,-1,-1,-1,-1],"loss_changes":[1.2103131E1,3.6309962E0,6.988031E0,0E0,0E0,0E0,0E0],"parents":[2147483647,0,0,1,1,2,2],"right_children":[2,4,6,-1,-1,-1,-1],"split_conditions":[2.8E1,2.4E1,1E0,-1.0053932E-2,8.561143E-2,-1.1424028E-1,1.1510531E-2],"split_indices":[5,5,2,0,0,0,0],"split_type":[0,0,0,0,0,0,0],"sum_hessian":[3.394798E1,1.7305761E1,1.664222E1,5.4604635E0,1.1845297E1,9.059986E0,7.582234E0],"tree_param":{"num_deleted":"0","num_feature":"10","num_nodes":"7","size_leaf_vector":"1"}},{"base_weights":[-5.4298537E-3,3.208843E-1,-9.554209E-2,1.0625701E-1,9.9936694E-2,-2.2831392E-1,8.09497E-2,-6.0102206E-2,2.8285665E-2],"categories":[],"categories_nodes":[],"categories_segments":[],"categories_sizes":[],"default_left":[0,0,0,0,0,0,0,0,0],"id":21,"left_children":[1,3,-1,5,-1,7,-1,-1,-1],"loss_changes":[1.0689296E1,3.6331334E0,0E0,5.0379086E0,0E0,2.9814565E0,0E0,0E0,0E0],"parents":[2147483647,0,0,1,1,3,3,5,5],"right_children":[2,4,-1,6,-1,8,-1,-1,-1],"split_conditions":[5.5E1,3E0,-9.554209E-2,2E0,9.9936694E-2,1E0,8.09497E-2,-6.0102206E-2,2.8285665E-2],"split_indices":[5,3,0,1,0,2,0,0,0],"split_type":[0,0,0,0,0,0,0,0,0],"sum_hessian":[3.249312E1,2.4678484E1,7.814634E0,1.9626547E1,5.0519385E0,1.3756936E1,5.869611E0,7.8543463E0,5.90259E0],"tree_param":{"num_deleted":"0","num_feature":"10","num_nodes":"9","size_leaf_vector":"1"}},{"base_weights":[-3.3534032E-3,5.21366E-1,-5.640684E-1,-1.3029915E-2,8.192906E-2,-1.1237305E-1,1.0254466E-2],"categories":[],"categories_nodes":[],"categories_segments":[],"categories_sizes":[],"default_left":[0,0,0,0,0,0,0],"id":22,"left_children":[1,3,5,-1,-1,-1,-1],"loss_changes":[9.717133E0,3.4197621E0,6.070674E0,0E0,0E0,0E0,0E0],"parents":[2147483647,0,0,1,1,2,2],"right_children":[2,4,6,-1,-1,-1,-1],"split_conditions":[2.8E1,2.4E1,1E0,-1.3029915E-2,8.192906E-2,-1.1237305E-1,1.0254466E-2],"split_indices":[5,5,2,0,0,0,0],"split_type":[0,0,0,0,0,0,0],"sum_hessian":[3.102743E1,1.6064438E1,1.4962992E1,5.216586E0,1.0847853E1,7.7612333E0,7.201758E0],"tree_param":{"num_deleted":"0","num_feature":"10","num_nodes":"7","size_leaf_vector":"1"}},{"base_weights":[-4.570794E-3,2.9244584E-1,-9.287765E-2,4.921955E-1,-1.2488163E-2,-1.1903224E-2,7.876918E-2],"categories":[],"categories_nodes":[],"categories_segments":[],"categories_sizes":[],"default_left":[0,0,0,0,0,0,0],"id":23,"left_children":[1,3,-1,5,-1,-1,-1],"loss_changes":[8.715544E0,2.0654464E0,0E0,3.0667655E0,0E0,0E0,0E0],"parents":[2147483647,0,0,1,1,3,3],"right_children":[2,4,-1,6,-1,-1,-1],"split_conditions":[5.5E1,2.8E1,-9.287765E-2,2.4E1,-1.2488163E-2,-1.1903224E-2,7.876918E-2],"split_indices":[5,5,0,5,0,0,0],"split_type":[0,0,0,0,0,0,0],"sum_hessian":[2.9760616E1,2.3039778E1,6.7208385E0,1.5460408E1,7.5793695E0,5.233077E0,1.0227331E1],"tree_param":{"num_deleted":"0","num_feature":"10","num_nodes":"7","size_leaf_vector":"1"}},{"base_weights":[-5.6170165E-3,2.7237868E-1,-9.13563E-2,9.698392E-3,7.574888E-2],"categories":[],"categories_nodes":[],"categories_segments":[],"categories_sizes":[],"default_left":[0,0,0,0,0],"id":24,"left_children":[1,3,-1,-1,-1],"loss_changes":[7.747031E0,1.9272201E0,0E0,0E0,0E0],"parents":[2147483647,0,0,1,1],"right_children":[2,4,-1,-1,-1],"split_conditions":[5.5E1,2E0,-9.13563E-2,9.698392E-3,7.574888E-2],"split_indices":[5,1,0,0,0],"split_type":[0,0,0,0,0],"sum_hessian":[2.8706999E1,2.2513731E1,6.1932683E0,1.7416574E1,5.0971556E0],"tree_param":{"num_deleted":"0","num_feature":"10","num_nodes":"5","size_leaf_vector":"1"}},{"base_weights":[-5.76704E-3,2.5329733E-1,-8.984222E-2,4.5012456E-1,-1.4022914E-2,-1.1712822E-2,7.46183E-2],"categories":[],"categories_nodes":[],"categories_segments":[],"categories_sizes":[],"default_left":[0,0,0,0,0,0,0],"id":25,"left_children":[1,3,-1,5,-1,-1,-1],"loss_changes":[6.8995333E0,1.8555846E0,0E0,2.717931E0,0E0,0E0,0E0],"parents":[2147483647,0,0,1,1,3,3],"right_children":[2,4,-1,6,-1,-1,-1],"split_conditions":[5.5E1,2.8E1,-8.984222E-2,2.4E1,-1.4022914E-2,-1.1712822E-2,7.46183E-2],"split_indices":[5,5,0,5,0,0,0],"split_type":[0,0,0,0,0,0,0],"sum_hessian":[2.7851099E1,2.2141489E1,5.70961E0,1.4663521E1,7.4779677E0,5.2358756E0,9.427646E0],"tree_param":{"num_deleted":"0","num_feature":"10","num_nodes":"7","size_leaf_vector":"1"}},{"base_weights":[-6.8494864E-3,2.3559435E-1,-8.832945E-2,4.2368826E-1,-1.273256E-2,-1.0702394E-2,7.153981E-2],"categories":[],"categories_nodes":[],"categories_segments":[],"categories_sizes":[],"default_left":[0,0,0,0,0,0,0],"id":26,"left_children":[1,3,-1,5,-1,-1,-1],"loss_changes":[6.146902E0,1.6023029E0,0E0,2.4251688E0,0E0,0E0,0E0],"parents":[2147483647,0,0,1,1,3,3],"right_children":[2,4,-1,6,-1,-1,-1],"split_conditions":[5.5E1,2.8E1,-8.832945E-2,2.4E1,-1.273256E-2,-1.0702394E-2,7.153981E-2],"split_indices":[5,5,0,5,0,0,0],"split_type":[0,0,0,0,0,0,0],"sum_hessian":[2.6948795E1,2.1682213E1,5.2665806E0,1.4170496E1,7.511718E0,5.2507815E0,8.919714E0],"tree_param":{"num_deleted":"0","num_feature":"10","num_nodes":"7","size_leaf_vector":"1"}},{"base_weights":[-7.874451E-3,-1.3359284E-1,3.939497E-2,-4.245512E-1,5.5294216E-2,-9.731632E-2,-3.538663E-3],"categories":[],"categories_nodes":[],"categories_segments":[],"categories_sizes":[],"default_left":[0,0,0,0,0,0,0],"id":27,"left_children":[1,3,-1,5,-1,-1,-1],"loss_changes":[1.422729E0,4.510493E0,0E0,3.2960405E0,0E0,0E0,0E0],"parents":[2147483647,0,0,1,1,3,3],"right_children":[2,4,-1,6,-1,-1,-1],"split_conditions":[2E0,3E0,3.939497E-2,1E0,5.5294216E-2,-9.731632E-2,-3.538663E-3],"split_indices":[1,3,0,0,0,0,0],"split_type":[0,0,0,0,0,0,0],"sum_hessian":[2.612173E1,2.040513E1,5.716602E0,1.4599403E1,5.8057265E0,5.4358068E0,9.163597E0],"tree_param":{"num_deleted":"0","num_feature":"10","num_nodes":"7","size_leaf_vector":"1"}},{"base_weights":[-8.01446E-3,-2.6885772E-2,1.3367789E-2],"categories":[],"categories_nodes":[],"categories_segments":[],"categories_sizes":[],"default_left":[0,0,0],"id":28,"left_children":[1,-1,-1],"loss_changes":[1.017295E0,0E0,0E0],"parents":[2147483647,0,0],"right_children":[2,-1,-1],"split_conditions":[1E0,-2.6885772E-2,1.3367789E-2],"split_indices":[0,0,0],"split_type":[0,0,0],"sum_hessian":[2.5552172E1,8.678442E0,1.687373E1],"tree_param":{"num_deleted":"0","num_feature":"10","num_nodes":"3","size_leaf_vector":"1"}},{"base_weights":[-7.7789915E-3,-2.4650058E-2,1.2183359E-2],"categories":[],"categories_nodes":[],"categories_segments":[],"categories_sizes":[],"default_left":[0,0,0],"id":29,"left_children":[1,-1,-1],"loss_changes":[8.4623677E-1,0E0,0E0],"parents":[2147483647,0,0],"right_children":[2,-1,-1],"split_conditions":[1E0,-2.4650058E-2,1.2183359E-2],"split_indices":[0,0,0],"split_type":[0,0,0],"sum_hessian":[2.5379116E1,8.613278E0,1.6765837E1],"tree_param":{"num_deleted":"0","num_feature":"10","num_nodes":"3","size_leaf_vector":"1"}},{"base_weights":[-7.522561E-3,-2.2584857E-2,1.1097657E-2],"categories":[],"categories_nodes":[],"categories_segments":[],"categories_sizes":[],"default_left":[0,0,0],"id":30,"left_children":[1,-1,-1],"loss_changes":[7.0351815E-1,0E0,0E0],"parents":[2147483647,0,0],"right_children":[2,-1,-1],"split_conditions":[1E0,-2.2584857E-2,1.1097657E-2],"split_indices":[0,0,0],"split_type":[0,0,0],"sum_hessian":[2.522406E1,8.555417E0,1.6668642E1],"tree_param":{"num_deleted":"0","num_feature":"10","num_nodes":"3","size_leaf_vector":"1"}},{"base_weights":[-7.2505474E-3,-2.0680195E-2,1.010353E-2],"categories":[],"categories_nodes":[],"categories_segments":[],"categories_sizes":[],"default_left":[0,0,0],"id":31,"left_children":[1,-1,-1],"loss_changes":[5.845546E-1,0E0,0E0],"parents":[2147483647,0,0],"right_children":[2,-1,-1],"split_conditions":[1E0,-2.0680195E-2,1.010353E-2],"split_indices":[0,0,0],"split_type":[0,0,0],"sum_hessian":[2.5085007E1,8.503959E0,1.6581049E1],"tree_param":{"num_deleted":"0","num_feature":"10","num_nodes":"3","size_leaf_vector":"1"}},{"base_weights":[-6.967038E-3],"categories":[],"categories_nodes":[],"categories_segments":[],"categories_sizes":[],"default_left":[0],"id":32,"left_children":[-1],"loss_changes":[0E0],"parents":[2147483647],"right_children":[-1],"split_conditions":[-6.967038E-4],"split_indices":[0],"split_type":[0],"sum_hessian":[2.496021E1],"tree_param":{"num_deleted":"0","num_feature":"10","num_nodes":"1","size_leaf_vector":"1"}},{"base_weights":[-6.296304E-3],"categories":[],"categories_nodes":[],"categories_segments":[],"categories_sizes":[],"default_left":[0],"id":33,"left_children":[-1],"loss_changes":[0E0],"parents":[2147483647],"right_children":[-1],"split_conditions":[-6.296304E-4],"split_indices":[0],"split_type":[0],"sum_hessian":[2.4964108E1],"tree_param":{"num_deleted":"0","num_feature":"10","num_nodes":"1","size_leaf_vector":"1"}},{"base_weights":[-5.690048E-3],"categories":[],"categories_nodes":[],"categories_segments":[],"categories_sizes":[],"default_left":[0],"id":34,"left_children":[-1],"loss_changes":[0E0],"parents":[2147483647],"right_children":[-1],"split_conditions":[-5.690048E-4],"split_indices":[0],"split_type":[0],"sum_hessian":[2.4967634E1],"tree_param":{"num_deleted":"0","num_feature":"10","num_nodes":"1","size_leaf_vector":"1"}},{"base_weights":[-5.1423316E-3],"categories":[],"categories_nodes":[],"categories_segments":[],"categories_sizes":[],"default_left":[0],"id":35,"left_children":[-1],"loss_changes":[0E0],"parents":[2147483647],"right_children":[-1],"split_conditions":[-5.142332E-4],"split_indices":[0],"split_type":[0],"sum_hessian":[2.4970823E1],"tree_param":{"num_deleted":"0","num_feature":"10","num_nodes":"1","size_leaf_vector":"1"}},{"base_weights":[-4.647307E-3],"categories":[],"categories_nodes":[],"categories_segments":[],"categories_sizes":[],"default_left":[0],"id":36,"left_children":[-1],"loss_changes":[0E0],"parents":[2147483647],"right_children":[-1],"split_conditions":[-4.6473072E-4],"split_indices":[0],"split_type":[0],"sum_hessian":[2.497371E1],"tree_param":{"num_deleted":"0","num_feature":"10","num_nodes":"1","size_leaf_vector":"1"}},{"base_weights":[-4.200135E-3],"categories":[],"categories_nodes":[],"categories_segments":[],"categories_sizes":[],"default_left":[0],"id":37,"left_children":[-1],"loss_changes":[0E0],"parents":[2147483647],"right_children":[-1],"split_conditions":[-4.200135E-4],"split_indices":[0],"split_type":[0],"sum_hessian":[2.497632E1],"tree_param":{"num_deleted":"0","num_feature":"10","num_nodes":"1","size_leaf_vector":"1"}},{"base_weights":[-3.7957379E-3],"categories":[],"categories_nodes":[],"categories_segments":[],"categories_sizes":[],"default_left":[0],"id":38,"left_children":[-1],"loss_changes":[0E0],"parents":[2147483647],"right_children":[-1],"split_conditions":[-3.795738E-4],"split_indices":[0],"split_type":[0],"sum_hessian":[2.4978683E1],"tree_param":{"num_deleted":"0","num_feature":"10","num_nodes":"1","size_leaf_vector":"1"}},{"base_weights":[-3.4304922E-3],"categories":[],"categories_nodes":[],"categories_segments":[],"categories_sizes":[],"default_left":[0],"id":39,"left_children":[-1],"loss_changes":[0E0],"parents":[2147483647],"right_children":[-1],"split_conditions":[-3.4304924E-4],"split_indices":[0],"split_type":[0],"sum_hessian":[2.498082E1],"tree_param":{"num_deleted":"0","num_feature":"10","num_nodes":"1","size_leaf_vector":"1"}},{"base_weights":[-3.1003377E-3],"categories":[],"categories_nodes":[],"categories_segments":[],"categories_sizes":[],"default_left":[0],"id":40,"left_children":[-1],"loss_changes":[0E0],"parents":[2147483647],"right_children":[-1],"split_conditions":[-3.1003376E-4],"split_indices":[0],"split_type":[0],"sum_hessian":[2.4982752E1],"tree_param":{"num_deleted":"0","num_feature":"10","num_nodes":"1","size_leaf_vector":"1"}},{"base_weights":[-2.8022558E-3],"categories":[],"categories_nodes":[],"categories_segments":[],"categories_sizes":[],"default_left":[0],"id":41,"left_children":[-1],"loss_changes":[0E0],"parents":[2147483647],"right_children":[-1],"split_conditions":[-2.802256E-4],"split_indices":[0],"split_type":[0],"sum_hessian":[2.4984493E1],"tree_param":{"num_deleted":"0","num_feature":"10","num_nodes":"1","size_leaf_vector":"1"}},{"base_weights":[-2.5327024E-3],"categories":[],"categories_nodes":[],"categories_segments":[],"categories_sizes":[],"default_left":[0],"id":42,"left_children":[-1],"loss_changes":[0E0],"parents":[2147483647],"right_children":[-1],"split_conditions":[-2.5327023E-4],"split_indices":[0],"split_type":[0],"sum_hessian":[2.4986074E1],"tree_param":{"num_deleted":"0","num_feature":"10","num_nodes":"1","size_leaf_vector":"1"}},{"base_weights":[-2.2890812E-3],"categories":[],"categories_nodes":[],"categories_segments":[],"categories_sizes":[],"default_left":[0],"id":43,"left_children":[-1],"loss_changes":[0E0],"parents":[2147483647],"right_children":[-1],"split_conditions":[-2.2890813E-4],"split_indices":[0],"split_type":[0],"sum_hessian":[2.4987501E1],"tree_param":{"num_deleted":"0","num_feature":"10","num_nodes":"1","size_leaf_vector":"1"}},{"base_weights":[-2.068794E-3],"categories":[],"categories_nodes":[],"categories_segments":[],"categories_sizes":[],"default_left":[0],"id":44,"left_children":[-1],"loss_changes":[0E0],"parents":[2147483647],"right_children":[-1],"split_conditions":[-2.0687941E-4],"split_indices":[0],"split_type":[0],"sum_hessian":[2.4988796E1],"tree_param":{"num_deleted":"0","num_feature":"10","num_nodes":"1","size_leaf_vector":"1"}},{"base_weights":[-1.869652E-3],"categories":[],"categories_nodes":[],"categories_segments":[],"categories_sizes":[],"default_left":[0],"id":45,"left_children":[-1],"loss_changes":[0E0],"parents":[2147483647],"right_children":[-1],"split_conditions":[-1.869652E-4],"split_indices":[0],"split_type":[0],"sum_hessian":[2.4989964E1],"tree_param":{"num_deleted":"0","num_feature":"10","num_nodes":"1","size_leaf_vector":"1"}},{"base_weights":[-1.6898277E-3],"categories":[],"categories_nodes":[],"categories_segments":[],"categories_sizes":[],"default_left":[0],"id":46,"left_children":[-1],"loss_changes":[0E0],"parents":[2147483647],"right_children":[-1],"split_conditions":[-1.6898276E-4],"split_indices":[0],"split_type":[0],"sum_hessian":[2.499102E1],"tree_param":{"num_deleted":"0","num_feature":"10","num_nodes":"1","size_leaf_vector":"1"}},{"base_weights":[-1.5274304E-3],"categories":[],"categories_nodes":[],"categories_segments":[],"categories_sizes":[],"default_left":[0],"id":47,"left_children":[-1],"loss_changes":[0E0],"parents":[2147483647],"right_children":[-1],"split_conditions":[-1.5274304E-4],"split_indices":[0],"split_type":[0],"sum_hessian":[2.4991972E1],"tree_param":{"num_deleted":"0","num_feature":"10","num_nodes":"1","size_leaf_vector":"1"}},{"base_weights":[-1.3803616E-3],"categories":[],"categories_nodes":[],"categories_segments":[],"categories_sizes":[],"default_left":[0],"id":48,"left_children":[-1],"loss_changes":[0E0],"parents":[2147483647],"right_children":[-1],"split_conditions":[-1.3803616E-4],"split_indices":[0],"split_type":[0],"sum_hessian":[2.4992836E1],"tree_param":{"num_deleted":"0","num_feature":"10","num_nodes":"1","size_leaf_vector":"1"}},{"base_weights":[-1.247553E-3],"categories":[],"categories_nodes":[],"categories_segments":[],"categories_sizes":[],"default_left":[0],"id":49,"left_children":[-1],"loss_changes":[0E0],"parents":[2147483647],"right_children":[-1],"split_conditions":[-1.247553E-4],"split_indices":[0],"split_type":[0],"sum_hessian":[2.4993616E1],"tree_param":{"num_deleted":"0","num_feature":"10","num_nodes":"1","size_leaf_vector":"1"}},{"base_weights":[-1.1277646E-3],"categories":[],"categories_nodes":[],"categories_segments":[],"categories_sizes":[],"default_left":[0],"id":50,"left_children":[-1],"loss_changes":[0E0],"parents":[2147483647],"right_children":[-1],"split_conditions":[-1.1277646E-4],"split_indices":[0],"split_type":[0],"sum_hessian":[2.4994318E1],"tree_param":{"num_deleted":"0","num_feature":"10","num_nodes":"1","size_leaf_vector":"1"}},{"base_weights":[-1.0192537E-3],"categories":[],"categories_nodes":[],"categories_segments":[],"categories_sizes":[],"default_left":[0],"id":51,"left_children":[-1],"loss_changes":[0E0],"parents":[2147483647],"right_children":[-1],"split_conditions":[-1.01925376E-4],"split_indices":[0],"split_type":[0],"sum_hessian":[2.4994955E1],"tree_param":{"num_deleted":"0","num_feature":"10","num_nodes":"1","size_leaf_vector":"1"}},{"base_weights":[-9.211192E-4],"categories":[],"categories_nodes":[],"categories_segments":[],"categories_sizes":[],"default_left":[0],"id":52,"left_children":[-1],"loss_changes":[0E0],"parents":[2147483647],"right_children":[-1],"split_conditions":[-9.211192E-5],"split_indices":[0],"split_type":[0],"sum_hessian":[2.4995535E1],"tree_param":{"num_deleted":"0","num_feature":"10","num_nodes":"1","size_leaf_vector":"1"}},{"base_weights":[-8.324356E-4],"categories":[],"categories_nodes":[],"categories_segments":[],"categories_sizes":[],"default_left":[0],"id":53,"left_children":[-1],"loss_changes":[0E0],"parents":[2147483647],"right_children":[-1],"split_conditions":[-8.324356E-5],"split_indices":[0],"split_type":[0],"sum_hessian":[2.4996058E1],"tree_param":{"num_deleted":"0","num_feature":"10","num_nodes":"1","size_leaf_vector":"1"}},{"base_weights":[-7.525443E-4],"categories":[],"categories_nodes":[],"categories_segments":[],"categories_sizes":[],"default_left":[0],"id":54,"left_children":[-1],"loss_changes":[0E0],"parents":[2147483647],"right_children":[-1],"split_conditions":[-7.525444E-5],"split_indices":[0],"split_type":[0],"sum_hessian":[2.4996525E1],"tree_param":{"num_deleted":"0","num_feature":"10","num_nodes":"1","size_leaf_vector":"1"}},{"base_weights":[-6.80219E-4],"categories":[],"categories_nodes":[],"categories_segments":[],"categories_sizes":[],"default_left":[0],"id":55,"left_children":[-1],"loss_changes":[0E0],"parents":[2147483647],"right_children":[-1],"split_conditions":[-6.80219E-5],"split_indices":[0],"split_type":[0],"sum_hessian":[2.499695E1],"tree_param":{"num_deleted":"0","num_feature":"10","num_nodes":"1","size_leaf_vector":"1"}},{"base_weights":[-6.146712E-4],"categories":[],"categories_nodes":[],"categories_segments":[],"categories_sizes":[],"default_left":[0],"id":56,"left_children":[-1],"loss_changes":[0E0],"parents":[2147483647],"right_children":[-1],"split_conditions":[-6.146712E-5],"split_indices":[0],"split_type":[0],"sum_hessian":[2.4997337E1],"tree_param":{"num_deleted":"0","num_feature":"10","num_nodes":"1","size_leaf_vector":"1"}},{"base_weights":[-5.555384E-4],"categories":[],"categories_nodes":[],"categories_segments":[],"categories_sizes":[],"default_left":[0],"id":57,"left_children":[-1],"loss_changes":[0E0],"parents":[2147483647],"right_children":[-1],"split_conditions":[-5.555384E-5],"split_indices":[0],"split_type":[0],"sum_hessian":[2.4997686E1],"tree_param":{"num_deleted":"0","num_feature":"10","num_nodes":"1","size_leaf_vector":"1"}},{"base_weights":[-5.021671E-4],"categories":[],"categories_nodes":[],"categories_segments":[],"categories_sizes":[],"default_left":[0],"id":58,"left_children":[-1],"loss_changes":[0E0],"parents":[2147483647],"right_children":[-1],"split_conditions":[-5.021671E-5],"split_indices":[0],"split_type":[0],"sum_hessian":[2.4998E1],"tree_param":{"num_deleted":"0","num_feature":"10","num_nodes":"1","size_leaf_vector":"1"}},{"base_weights":[-4.537617E-4],"categories":[],"categories_nodes":[],"categories_segments":[],"categories_sizes":[],"default_left":[0],"id":59,"left_children":[-1],"loss_changes":[0E0],"parents":[2147483647],"right_children":[-1],"split_conditions":[-4.537617E-5],"split_indices":[0],"split_type":[0],"sum_hessian":[2.4998285E1],"tree_param":{"num_deleted":"0","num_feature":"10","num_nodes":"1","size_leaf_vector":"1"}},{"base_weights":[-4.1018566E-4],"categories":[],"categories_nodes":[],"categories_segments":[],"categories_sizes":[],"default_left":[0],"id":60,"left_children":[-1],"loss_changes":[0E0],"parents":[2147483647],"right_children":[-1],"split_conditions":[-4.1018568E-5],"split_indices":[0],"split_type":[0],"sum_hessian":[2.499854E1],"tree_param":{"num_deleted":"0","num_feature":"10","num_nodes":"1","size_leaf_vector":"1"}},{"base_weights":[-3.7090734E-4],"categories":[],"categories_nodes":[],"categories_segments":[],"categories_sizes":[],"default_left":[0],"id":61,"left_children":[-1],"loss_changes":[0E0],"parents":[2147483647],"right_children":[-1],"split_conditions":[-3.7090733E-5],"split_indices":[0],"split_type":[0],"sum_hessian":[2.4998768E1],"tree_param":{"num_deleted":"0","num_feature":"10","num_nodes":"1","size_leaf_vector":"1"}},{"base_weights":[-3.352036E-4],"categories":[],"categories_nodes":[],"categories_segments":[],"categories_sizes":[],"default_left":[0],"id":62,"left_children":[-1],"loss_changes":[0E0],"parents":[2147483647],"right_children":[-1],"split_conditions":[-3.3520362E-5],"split_indices":[0],"split_type":[0],"sum_hessian":[2.499898E1],"tree_param":{"num_deleted":"0","num_feature":"10","num_nodes":"1","size_leaf_vector":"1"}},{"base_weights":[-3.0274995E-4],"categories":[],"categories_nodes":[],"categories_segments":[],"categories_sizes":[],"default_left":[0],"id":63,"left_children":[-1],"loss_changes":[0E0],"parents":[2147483647],"right_children":[-1],"split_conditions":[-3.0274996E-5],"split_indices":[0],"split_type":[0],"sum_hessian":[2.4999172E1],"tree_param":{"num_deleted":"0","num_feature":"10","num_nodes":"1","size_leaf_vector":"1"}},{"base_weights":[-2.7384446E-4],"categories":[],"categories_nodes":[],"categories_segments":[],"categories_sizes":[],"default_left":[0],"id":64,"left_children":[-1],"loss_changes":[0E0],"parents":[2147483647],"right_children":[-1],"split_conditions":[-2.7384447E-5],"split_indices":[0],"split_type":[0],"sum_hessian":[2.4999338E1],"tree_param":{"num_deleted":"0","num_feature":"10","num_nodes":"1","size_leaf_vector":"1"}},{"base_weights":[-2.472874E-4],"categories":[],"categories_nodes":[],"categories_segments":[],"categories_sizes":[],"default_left":[0],"id":65,"left_children":[-1],"loss_changes":[0E0],"parents":[2147483647],"right_children":[-1],"split_conditions":[-2.4728739E-5],"split_indices":[0],"split_type":[0],"sum_hessian":[2.4999498E1],"tree_param":{"num_deleted":"0","num_feature":"10","num_nodes":"1","size_leaf_vector":"1"}},{"base_weights":[-2.2357184E-4],"categories":[],"categories_nodes":[],"categories_segments":[],"categories_sizes":[],"default_left":[0],"id":66,"left_children":[-1],"loss_changes":[0E0],"parents":[2147483647],"right_children":[-1],"split_conditions":[-2.2357184E-5],"split_indices":[0],"split_type":[0],"sum_hessian":[2.4999636E1],"tree_param":{"num_deleted":"0","num_feature":"10","num_nodes":"1","size_leaf_vector":"1"}},{"base_weights":[-2.0191814E-4],"categories":[],"categories_nodes":[],"categories_segments":[],"categories_sizes":[],"default_left":[0],"id":67,"left_children":[-1],"loss_changes":[0E0],"parents":[2147483647],"right_children":[-1],"split_conditions":[-2.0191814E-5],"split_indices":[0],"split_type":[0],"sum_hessian":[2.4999767E1],"tree_param":{"num_deleted":"0","num_feature":"10","num_nodes":"1","size_leaf_vector":"1"}},{"base_weights":[-1.8260858E-4],"categories":[],"categories_nodes":[],"categories_segments":[],"categories_sizes":[],"default_left":[0],"id":68,"left_children":[-1],"loss_changes":[0E0],"parents":[2147483647],"right_children":[-1],"split_conditions":[-1.8260858E-5],"split_indices":[0],"split_type":[0],"sum_hessian":[2.4999878E1],"tree_param":{"num_deleted":"0","num_feature":"10","num_nodes":"1","size_leaf_vector":"1"}},{"base_weights":[-1.6489379E-4],"categories":[],"categories_nodes":[],"categories_segments":[],"categories_sizes":[],"default_left":[0],"id":69,"left_children":[-1],"loss_changes":[0E0],"parents":[2147483647],"right_children":[-1],"split_conditions":[-1.6489379E-5],"split_indices":[0],"split_type":[0],"sum_hessian":[2.4999983E1],"tree_param":{"num_deleted":"0","num_feature":"10","num_nodes":"1","size_leaf_vector":"1"}},{"base_weights":[-1.4914229E-4],"categories":[],"categories_nodes":[],"categories_segments":[],"categories_sizes":[],"default_left":[0],"id":70,"left_children":[-1],"loss_changes":[0E0],"parents":[2147483647],"right_children":[-1],"split_conditions":[-1.4914229E-5],"split_indices":[0],"split_type":[0],"sum_hessian":[2.5000074E1],"tree_param":{"num_deleted":"0","num_feature":"10","num_nodes":"1","size_leaf_vector":"1"}},{"base_weights":[-1.3464075E-4],"categories":[],"categories_nodes":[],"categories_segments":[],"categories_sizes":[],"default_left":[0],"id":71,"left_children":[-1],"loss_changes":[0E0],"parents":[2147483647],"right_children":[-1],"split_conditions":[-1.3464075E-5],"split_indices":[0],"split_type":[0],"sum_hessian":[2.5000162E1],"tree_param":{"num_deleted":"0","num_feature":"10","num_nodes":"1","size_leaf_vector":"1"}},{"base_weights":[-1.2187635E-4],"categories":[],"categories_nodes":[],"categories_segments":[],"categories_sizes":[],"default_left":[0],"id":72,"left_children":[-1],"loss_changes":[0E0],"parents":[2147483647],"right_children":[-1],"split_conditions":[-1.2187636E-5],"split_indices":[0],"split_type":[0],"sum_hessian":[2.5000235E1],"tree_param":{"num_deleted":"0","num_feature":"10","num_nodes":"1","size_leaf_vector":"1"}},{"base_weights":[-1.1017031E-4],"categories":[],"categories_nodes":[],"categories_segments":[],"categories_sizes":[],"default_left":[0],"id":73,"left_children":[-1],"loss_changes":[0E0],"parents":[2147483647],"right_children":[-1],"split_conditions":[-1.1017031E-5],"split_indices":[0],"split_type":[0],"sum_hessian":[2.5000303E1],"tree_param":{"num_deleted":"0","num_feature":"10","num_nodes":"1","size_leaf_vector":"1"}},{"base_weights":[-9.964295E-5],"categories":[],"categories_nodes":[],"categories_segments":[],"categories_sizes":[],"default_left":[0],"id":74,"left_children":[-1],"loss_changes":[0E0],"parents":[2147483647],"right_children":[-1],"split_conditions":[-9.964296E-6],"split_indices":[0],"split_type":[0],"sum_hessian":[2.5000366E1],"tree_param":{"num_deleted":"0","num_feature":"10","num_nodes":"1","size_leaf_vector":"1"}},{"base_weights":[-9.00239E-5],"categories":[],"categories_nodes":[],"categories_segments":[],"categories_sizes":[],"default_left":[0],"id":75,"left_children":[-1],"loss_changes":[0E0],"parents":[2147483647],"right_children":[-1],"split_conditions":[-9.0023905E-6],"split_indices":[0],"split_type":[0],"sum_hessian":[2.5000422E1],"tree_param":{"num_deleted":"0","num_feature":"10","num_nodes":"1","size_leaf_vector":"1"}},{"base_weights":[-8.126185E-5],"categories":[],"categories_nodes":[],"categories_segments":[],"categories_sizes":[],"default_left":[0],"id":76,"left_children":[-1],"loss_changes":[0E0],"parents":[2147483647],"right_children":[-1],"split_conditions":[-8.126185E-6],"split_indices":[0],"split_type":[0],"sum_hessian":[2.5000475E1],"tree_param":{"num_deleted":"0","num_feature":"10","num_nodes":"1","size_leaf_vector":"1"}},{"base_weights":[-7.3407806E-5],"categories":[],"categories_nodes":[],"categories_segments":[],"categories_sizes":[],"default_left":[0],"id":77,"left_children":[-1],"loss_changes":[0E0],"parents":[2147483647],"right_children":[-1],"split_conditions":[-7.3407805E-6],"split_indices":[0],"split_type":[0],"sum_hessian":[2.5000523E1],"tree_param":{"num_deleted":"0","num_feature":"10","num_nodes":"1","size_leaf_vector":"1"}},{"base_weights":[-6.641318E-5],"categories":[],"categories_nodes":[],"categories_segments":[],"categories_sizes":[],"default_left":[0],"id":78,"left_children":[-1],"loss_changes":[0E0],"parents":[2147483647],"right_children":[-1],"split_conditions":[-6.641318E-6],"split_indices":[0],"split_type":[0],"sum_hessian":[2.5000563E1],"tree_param":{"num_deleted":"0","num_feature":"10","num_nodes":"1","size_leaf_vector":"1"}},{"base_weights":[-6.006176E-5],"categories":[],"categories_nodes":[],"categories_segments":[],"categories_sizes":[],"default_left":[0],"id":79,"left_children":[-1],"loss_changes":[0E0],"parents":[2147483647],"right_children":[-1],"split_conditions":[-6.006176E-6],"split_indices":[0],"split_type":[0],"sum_hessian":[2.5000597E1],"tree_param":{"num_deleted":"0","num_feature":"10","num_nodes":"1","size_leaf_vector":"1"}},{"base_weights":[-5.4159238E-5],"categories":[],"categories_nodes":[],"categories_segments":[],"categories_sizes":[],"default_left":[0],"id":80,"left_children":[-1],"loss_changes":[0E0],"parents":[2147483647],"right_children":[-1],"split_conditions":[-5.415924E-6],"split_indices":[0],"split_type":[0],"sum_hessian":[2.5000635E1],"tree_param":{"num_deleted":"0","num_feature":"10","num_nodes":"1","size_leaf_vector":"1"}},{"base_weights":[-4.9014398E-5],"categories":[],"categories_nodes":[],"categories_segments":[],"categories_sizes":[],"default_left":[0],"id":81,"left_children":[-1],"loss_changes":[0E0],"parents":[2147483647],"right_children":[-1],"split_conditions":[-4.9014398E-6],"split_indices":[0],"split_type":[0],"sum_hessian":[2.5000664E1],"tree_param":{"num_deleted":"0","num_feature":"10","num_nodes":"1","size_leaf_vector":"1"}},{"base_weights":[-4.4131335E-5],"categories":[],"categories_nodes":[],"categories_segments":[],"categories_sizes":[],"default_left":[0],"id":82,"left_children":[-1],"loss_changes":[0E0],"parents":[2147483647],"right_children":[-1],"split_conditions":[-4.4131334E-6],"split_indices":[0],"split_type":[0],"sum_hessian":[2.5000694E1],"tree_param":{"num_deleted":"0","num_feature":"10","num_nodes":"1","size_leaf_vector":"1"}},{"base_weights":[-3.9901486E-5],"categories":[],"categories_nodes":[],"categories_segments":[],"categories_sizes":[],"default_left":[0],"id":83,"left_children":[-1],"loss_changes":[0E0],"parents":[2147483647],"right_children":[-1],"split_conditions":[-3.990149E-6],"split_indices":[0],"split_type":[0],"sum_hessian":[2.5000717E1],"tree_param":{"num_deleted":"0","num_feature":"10","num_nodes":"1","size_leaf_vector":"1"}},{"base_weights":[-3.6195903E-5],"categories":[],"categories_nodes":[],"categories_segments":[],"categories_sizes":[],"default_left":[0],"id":84,"left_children":[-1],"loss_changes":[0E0],"parents":[2147483647],"right_children":[-1],"split_conditions":[-3.6195904E-6],"split_indices":[0],"split_type":[0],"sum_hessian":[2.5000736E1],"tree_param":{"num_deleted":"0","num_feature":"10","num_nodes":"1","size_leaf_vector":"1"}},{"base_weights":[-3.2668697E-5],"categories":[],"categories_nodes":[],"categories_segments":[],"categories_sizes":[],"default_left":[0],"id":85,"left_children":[-1],"loss_changes":[0E0],"parents":[2147483647],"right_children":[-1],"split_conditions":[-3.2668697E-6],"split_indices":[0],"split_type":[0],"sum_hessian":[2.500076E1],"tree_param":{"num_deleted":"0","num_feature":"10","num_nodes":"1","size_leaf_vector":"1"}},{"base_weights":[-2.9489232E-5],"categories":[],"categories_nodes":[],"categories_segments":[],"categories_sizes":[],"default_left":[0],"id":86,"left_children":[-1],"loss_changes":[0E0],"parents":[2147483647],"right_children":[-1],"split_conditions":[-2.9489233E-6],"split_indices":[0],"split_type":[0],"sum_hessian":[2.5000778E1],"tree_param":{"num_deleted":"0","num_feature":"10","num_nodes":"1","size_leaf_vector":"1"}},{"base_weights":[-2.6726853E-5],"categories":[],"categories_nodes":[],"categories_segments":[],"categories_sizes":[],"default_left":[0],"id":87,"left_children":[-1],"loss_changes":[0E0],"parents":[2147483647],"right_children":[-1],"split_conditions":[-2.6726855E-6],"split_indices":[0],"split_type":[0],"sum_hessian":[2.5000793E1],"tree_param":{"num_deleted":"0","num_feature":"10","num_nodes":"1","size_leaf_vector":"1"}},{"base_weights":[-2.3937966E-5],"categories":[],"categories_nodes":[],"categories_segments":[],"categories_sizes":[],"default_left":[0],"id":88,"left_children":[-1],"loss_changes":[0E0],"parents":[2147483647],"right_children":[-1],"split_conditions":[-2.3937966E-6],"split_indices":[0],"split_type":[0],"sum_hessian":[2.5000814E1],"tree_param":{"num_deleted":"0","num_feature":"10","num_nodes":"1","size_leaf_vector":"1"}},{"base_weights":[-2.189943E-5],"categories":[],"categories_nodes":[],"categories_segments":[],"categories_sizes":[],"default_left":[0],"id":89,"left_children":[-1],"loss_changes":[0E0],"parents":[2147483647],"right_children":[-1],"split_conditions":[-2.189943E-6],"split_indices":[0],"split_type":[0],"sum_hessian":[2.5000822E1],"tree_param":{"num_deleted":"0","num_feature":"10","num_nodes":"1","size_leaf_vector":"1"}},{"base_weights":[-1.9884388E-5],"categories":[],"categories_nodes":[],"categories_segments":[],"categories_sizes":[],"default_left":[0],"id":90,"left_children":[-1],"loss_changes":[0E0],"parents":[2147483647],"right_children":[-1],"split_conditions":[-1.988439E-6],"split_indices":[0],"split_type":[0],"sum_hessian":[2.5000834E1],"tree_param":{"num_deleted":"0","num_feature":"10","num_nodes":"1","size_leaf_vector":"1"}},{"base_weights":[-1.8007611E-5],"categories":[],"categories_nodes":[],"categories_segments":[],"categories_sizes":[],"default_left":[0],"id":91,"left_children":[-1],"loss_changes":[0E0],"parents":[2147483647],"right_children":[-1],"split_conditions":[-1.8007612E-6],"split_indices":[0],"split_type":[0],"sum_hessian":[2.5000845E1],"tree_param":{"num_deleted":"0","num_feature":"10","num_nodes":"1","size_leaf_vector":"1"}},{"base_weights":[-1.6138858E-5],"categories":[],"categories_nodes":[],"categories_segments":[],"categories_sizes":[],"default_left":[0],"id":92,"left_children":[-1],"loss_changes":[0E0],"parents":[2147483647],"right_children":[-1],"split_conditions":[-1.6138858E-6],"split_indices":[0],"split_type":[0],"sum_hessian":[2.5000856E1],"tree_param":{"num_deleted":"0","num_feature":"10","num_nodes":"1","size_leaf_vector":"1"}},{"base_weights":[-1.4377134E-5],"categories":[],"categories_nodes":[],"categories_segments":[],"categories_sizes":[],"default_left":[0],"id":93,"left_children":[-1],"loss_changes":[0E0],"parents":[2147483647],"right_children":[-1],"split_conditions":[-1.4377134E-6],"split_indices":[0],"split_type":[0],"sum_hessian":[2.500087E1],"tree_param":{"num_deleted":"0","num_feature":"10","num_nodes":"1","size_leaf_vector":"1"}},{"base_weights":[-1.3083495E-5],"categories":[],"categories_nodes":[],"categories_segments":[],"categories_sizes":[],"default_left":[0],"id":94,"left_children":[-1],"loss_changes":[0E0],"parents":[2147483647],"right_children":[-1],"split_conditions":[-1.3083495E-6],"split_indices":[0],"split_type":[0],"sum_hessian":[2.5000875E1],"tree_param":{"num_deleted":"0","num_feature":"10","num_nodes":"1","size_leaf_vector":"1"}},{"base_weights":[-1.2004199E-5],"categories":[],"categories_nodes":[],"categories_segments":[],"categories_sizes":[],"default_left":[0],"id":95,"left_children":[-1],"loss_changes":[0E0],"parents":[2147483647],"right_children":[-1],"split_conditions":[-1.2004199E-6],"split_indices":[0],"split_type":[0],"sum_hessian":[2.500088E1],"tree_param":{"num_deleted":"0","num_feature":"10","num_nodes":"1","size_leaf_vector":"1"}},{"base_weights":[-1.0807845E-5],"categories":[],"categories_nodes":[],"categories_segments":[],"categories_sizes":[],"default_left":[0],"id":96,"left_children":[-1],"loss_changes":[0E0],"parents":[2147483647],"right_children":[-1],"split_conditions":[-1.0807845E-6],"split_indices":[0],"split_type":[0],"sum_hessian":[2.5000887E1],"tree_param":{"num_deleted":"0","num_feature":"10","num_nodes":"1","size_leaf_vector":"1"}},{"base_weights":[-9.950053E-6],"categories":[],"categories_nodes":[],"categories_segments":[],"categories_sizes":[],"default_left":[0],"id":97,"left_children":[-1],"loss_changes":[0E0],"parents":[2147483647],"right_children":[-1],"split_conditions":[-9.950053E-7],"split_indices":[0],"split_type":[0],"sum_hessian":[2.5000889E1],"tree_param":{"num_deleted":"0","num_feature":"10","num_nodes":"1","size_leaf_vector":"1"}},{"base_weights":[-8.86173E-6],"categories":[],"categories_nodes":[],"categories_segments":[],"categories_sizes":[],"default_left":[0],"id":98,"left_children":[-1],"loss_changes":[0E0],"parents":[2147483647],"right_children":[-1],"split_conditions":[-8.86173E-7],"split_indices":[0],"split_type":[0],"sum_hessian":[2.5000898E1],"tree_param":{"num_deleted":"0","num_feature":"10","num_nodes":"1","size_leaf_vector":"1"}},{"base_weights":[-8.053941E-6],"categories":[],"categories_nodes":[],"categories_segments":[],"categories_sizes":[],"default_left":[0],"id":99,"left_children":[-1],"loss_changes":[0E0],"parents":[2147483647],"right_children":[-1],"split_conditions":[-8.053941E-7],"split_indices":[0],"split_type":[0],"sum_hessian":[2.5000902E1],"tree_param":{"num_deleted":"0","num_feature":"10","num_nodes":"1","size_leaf_vector":"1"}}]},"name":"gbtree"},"learner_model_param":{"base_score":"[5E-1]","boost_from_average":"1","num_class":"0","num_feature":"10","num_target":"1"},"objective":{"name":"binary:logistic","reg_loss_param":{"scale_pos_weight":"20.75"}}},"version":[3,2,0]}